{
    "layer_input": {
        "weights": [
            [
                70189124350377984,
                21471595927175168,
                37923826784272384,
                60906716476211200,
                -76984179224477696,
                -50072794616037376,
                -85404935054688256,
                73715614622941184,
                52369197665091584,
                33968157609689088
            ],
            [
                82832344133664768,
                36923258318094336,
                75007996052111360,
                84105930785947648,
                -4629917299900416,
                4016131039821824,
                31899123686834176,
                -70909506330034176,
                -60849421612482560,
                46797164793298944
            ],
            [
                -33895843245326336,
                84745082049134592,
                -41337320762245120,
                -11090061898547200,
                -28740555345231872,
                608585792880640,
                72602960395239424,
                59791927649763328,
                7968134996688896,
                -7902972289744896
            ],
            [
                11506520181178368,
                -85510539710562304,
                74148195139059712,
                63046417643470848,
                -49135753011134464,
                86627162488045568,
                37962502964772864,
                -58490836026916864,
                -16226611930071040,
                18140591091089408
            ],
            [
                -14929190356779008,
                -14527223293804544,
                -1856841063596032,
                53583719927119872,
                -48234067577012224,
                -49258262658285568,
                -25203495158153216,
                44251181194674176,
                76844000081870848,
                -71134068695105536
            ],
            [
                44023075481583616,
                36150984543567872,
                -69914100414545920,
                22393613736476672,
                -1537084506505216,
                16385138099224576,
                -51064803212394496,
                14155119138439168,
                -24516820081836032,
                13255044317052928
            ],
            [
                -26551258043121664,
                -5327328720715776,
                44879994471579648,
                -73098891678973952,
                -36049911078191104,
                -68244376043651072,
                -55088539028684800,
                38054526934056960,
                70525192656388096,
                -15854440128970752
            ],
            [
                -31424615699972096,
                68154551097622528,
                72488671315492864,
                -42261322846437376,
                -11280007900954624,
                15750155101798400,
                2860784568762368,
                40089911935631360,
                45445718973874176,
                41988991855099904
            ],
            [
                -68970655013404672,
                3636978574688256,
                36401913712869376,
                73756700280094720,
                47183952368107520,
                -21459533511524352,
                24736196273897472,
                64573025114128384,
                31893029128241152,
                219210986815488
            ],
            [
                72399129837305856,
                -15869780678410240,
                -84744807171227648,
                56972346044448768,
                84471355193425920,
                -55984602350616576,
                33520377204310016,
                -31710254647476224,
                -75361231342403584,
                40677523591266304
            ],
            [
                -42794736309764096,
                -59452771262267392,
                -62557122084208640,
                51754914262548480,
                40461173203664896,
                -66793707889754112,
                18349736671051776,
                -37548489592274944,
                70127345540792320,
                -13777680633692160
            ],
            [
                80499807524749312,
                -56395179749277696,
                -19976481304215552,
                6758324850655232,
                -59137597972152320,
                -26219791794569216,
                -17471677852024832,
                -38529988403658752,
                78743243210096640,
                -38149570265350144
            ],
            [
                -12683330482864128,
                -94515230704402432,
                157905400350375936,
                -137073975741120512,
                203839783523319808,
                -9987201270022144,
                -159130668620578816,
                44570752531300352,
                -62202430800003072,
                97567234464940032
            ],
            [
                -54184731880718336,
                -170635408537812992,
                71210347314282496,
                -179228418326396928,
                164102350963736576,
                -70656051719962624,
                -52277633257308160,
                82469823124078592,
                -140562382538670080,
                164969006644592640
            ],
            [
                43135610684178432,
                -154270432088817664,
                -44581142057189376,
                60340485167775744,
                -82925991600586752,
                68004098393243648,
                3569925545263104,
                -32430928684908544,
                -73566536308097024,
                105260233856647168
            ],
            [
                -11515910053429248,
                35956162679537664,
                -51929345769340928,
                -12874001261002752,
                -10350297805225984,
                62795814891683840,
                994817706295296,
                18432889385385984,
                16533674174447616,
                -63776776832155648
            ],
            [
                9098484489650176,
                37027866541555712,
                15411123268354048,
                2432718868578304,
                68759252428128256,
                -71231482848346112,
                65428174577598464,
                -78708831932121088,
                72258718766465024,
                28812453097766912
            ],
            [
                -54382519419666432,
                41380738586640384,
                16576974960984064,
                6928727141253120,
                -81518986084220928,
                -44826380394823680,
                -55592806843940864,
                -39258114209349632,
                10275586849112064,
                -12663044278583296
            ],
            [
                26204914027855872,
                82267959661166592,
                86670163700613120,
                60934685303242752,
                1764468799307776,
                13661891536617472,
                -18183826379374592,
                43353146482753536,
                -80875814731644928,
                -15681840425730048
            ],
            [
                23119278525906944,
                69988570852491264,
                -26019274803904512,
                -39858679486349312,
                46471782365921280,
                -42071708630253568,
                83224612086743040,
                -17641275373125632,
                82569827142598656,
                69499932423225344
            ],
            [
                1051761188012032,
                -51863001409519616,
                -28056427184521216,
                32368310209216512,
                -44309940642250752,
                -64988850962825216,
                -20025781086322688,
                7705874629918720,
                -33020022104260608,
                72004147464896512
            ],
            [
                83619061883207680,
                -85318202485112832,
                -38328593092182016,
                -31642067746684928,
                34642211924606976,
                -14044791092281344,
                50339795552960512,
                17984822290939904,
                53112424575795200,
                -84477076089864192
            ],
            [
                74933263621160960,
                -40650495362072576,
                -9821720475074560,
                -53326618889814016,
                -43815181884588032,
                36153866466623488,
                55432475714781184,
                16595854563475456,
                -27364984694505472,
                69788923592704000
            ],
            [
                -64242630459916288,
                80418383534751744,
                -68477987904815104,
                12828639963906048,
                -81192242152210432,
                4314288474816512,
                52967512379228160,
                -73980983472291840,
                -85826864051912704,
                -32800540685500416
            ],
            [
                -3635957714649088,
                -58390381036830720,
                -48137031380893696,
                23851050758832128,
                -675238652149760,
                -85487321117360128,
                69760658412929024,
                -75029513838264320,
                26831657130524672,
                -76027964885565440
            ],
            [
                -27536029619585024,
                75658967065296896,
                47831483112488960,
                85091771809267712,
                43845658972520448,
                -19467338701078528,
                4656590657421312,
                57479491487793152,
                60076585197240320,
                86005586231033856
            ],
            [
                -3424748671336448,
                -82821477866405888,
                81108997096079360,
                63833736688435200,
                83328060669034496,
                -26989497178652672,
                64900597974827008,
                30117728018759680,
                66042354900926464,
                -60297234847105024
            ],
            [
                25418273587724288,
                -46548546316402688,
                -72398081865285632,
                35134501076074496,
                6497345994752000,
                57789257414082560,
                -60366250676584448,
                21907410553667584,
                -76438125672398848,
                26856630217867264
            ],
            [
                -3395482764181504,
                78992402852872192,
                -78822201888866304,
                -36550304832946176,
                36954826327719936,
                74524777871572992,
                74996494129692672,
                6327129998360576,
                -39496974520549376,
                -39111110363709440
            ],
            [
                23534281888366592,
                -31327079140163584,
                -16276851236274176,
                65902807118512128,
                -9892001172422656,
                -29996131052158976,
                49174016874774528,
                60280656273342464,
                35681969819877376,
                -14039799266541568
            ],
            [
                -80615763051806720,
                42594380380372992,
                46483344417882112,
                -72006015775670272,
                -42351727613050880,
                -10600439921770496,
                55385222484590592,
                73771663946153984,
                -71579791811149824,
                -74029654041690112
            ],
            [
                -17567157122498560,
                1188918888235008,
                79430300538503168,
                19949556154236928,
                7276005848776704,
                48284477608165376,
                -57505299946274816,
                -16156330158981120,
                42331837619503104,
                -55576232565145600
            ],
            [
                -26310658270167040,
                -57896816280076288,
                126556949452947456,
                -80601323371757568,
                138887139134799872,
                -83220497508073472,
                -54965655719378944,
                67370002306564096,
                -8264280507940864,
                87736904727920640
            ],
            [
                -21958945866252288,
                -146115113827434496,
                147940955964571648,
                -203563307888541696,
                295545530090520576,
                -54882079950766080,
                -205025967591129088,
                -145483066440155136,
                129037155627433984,
                104204290377121792
            ],
            [
                -349923011513548800,
                -289591537187160064,
                -37226955455594496,
                -335947016133672960,
                298536785833623552,
                -106423405489684480,
                -82066353896292352,
                -283238610541477888,
                62353270051438592,
                166807664964141056
            ],
            [
                -235955848155758592,
                -248126565701910528,
                5216869678055424,
                -363358459489419264,
                319040994064465920,
                -213850063800107008,
                -184055927207362560,
                -284768512252051456,
                233881567930351616,
                196487435167727616
            ],
            [
                -95132941490847744,
                -173240873138520064,
                97830911097176064,
                -368927176646459392,
                299702817914880000,
                -14702177712865280,
                -118974725857738752,
                -346793492183252992,
                162223388671082496,
                292681096141733888
            ],
            [
                -7759321739821056,
                -325377823172722688,
                110822362533855232,
                -417373651831095296,
                346027785413722112,
                -154778217482289152,
                -203330194243584000,
                -224441951368249344,
                209936592679206912,
                241890444986810368
            ],
            [
                124053524685258752,
                -325925929719169024,
                239198823342145536,
                -313920259176267776,
                277759778460008448,
                -139445596552429568,
                -126711843153510400,
                -241295248418930688,
                223311893933064192,
                162429358122729472
            ],
            [
                -213328276813250560,
                51987022885158912,
                -63286824142897152,
                -362511251420479488,
                218023088384638976,
                -402261139385221120,
                -251864578818834432,
                112563190088335360,
                220661332175749120,
                360309376306642944
            ],
            [
                -225386260057817088,
                39390274648014848,
                -160300892589916160,
                -441583935802048512,
                327502010918109184,
                -403256781523910656,
                -433586947215065088,
                97815328955826176,
                394485771110711296,
                215717378141454336
            ],
            [
                -79677699244687360,
                -61908959979634688,
                -45870834836832256,
                -333876601378832384,
                308938887386890240,
                -156944667705868288,
                -270277739271946240,
                142350102546087936,
                283498885559615488,
                313534021357273088
            ],
            [
                -137127800271273984,
                75348243361300480,
                56312196686151680,
                32171963631796224,
                -133434506353836032,
                -40033557669740544,
                155842338579546112,
                -2637467475771392,
                -269799022217134080,
                -177344628490502144
            ],
            [
                -279008376992563200,
                -341992955696906240,
                -51419442956992512,
                -473820998253150208,
                228044415317311488,
                170901352912781312,
                271657643544674304,
                -199084327013711872,
                38656045693796352,
                78592086131081216
            ],
            [
                -508162148002693120,
                -178016567534026752,
                -531486981515902976,
                -446525793892302848,
                259254448008724480,
                574445759806570496,
                293864342451912704,
                210015894955360256,
                254187915607801856,
                530910665624256512
            ],
            [
                -122420526579712000,
                -64453294310817792,
                -231961442671132672,
                -535130866129567744,
                339820114561990656,
                244402193401118720,
                -146284919654449152,
                54806587310604288,
                274098817056374784,
                544269972419903488
            ],
            [
                323459793857544192,
                -363674775240835072,
                379022102138716160,
                -544627073180762112,
                369696078871658496,
                -134463116661489664,
                -328511877988483072,
                -217342198629269504,
                473979774604148736,
                188394582910697472
            ],
            [
                151733910303145984,
                -349045601234583552,
                418111080535949312,
                -491877212564226048,
                292418759539294208,
                -307750349677002752,
                -350842065795416064,
                -254539398551437312,
                500057991391739904,
                98112815570616320
            ],
            [
                -167899789248167936,
                -387108872722055168,
                279338178941288448,
                -379691189323956224,
                440171441317478400,
                -274278157710786560,
                -291328662479831040,
                -139034568182202368,
                457117011445547008,
                341021331015335936
            ],
            [
                -286925273029410816,
                -348220486477414400,
                331195854591361024,
                -329128704011665408,
                354703722430857216,
                -274959683121315840,
                -223032240022487040,
                -203308616327888896,
                283002129642160128,
                202003392946503680
            ],
            [
                -339544446381064192,
                -229042565716901888,
                94227004039102464,
                -265054990320533504,
                343176030208393216,
                -204825512877490176,
                -273069141596831744,
                -35330678002286592,
                203892903678836736,
                205800470453682176
            ],
            [
                -298716830862671872,
                -198930893602029568,
                84275874051915776,
                -318274119063830528,
                212482649292275712,
                -352269128809054208,
                -196323934352703488,
                10406695020789760,
                150107612346580992,
                190144644644864000
            ],
            [
                75435465557147648,
                -77794837121728512,
                73815025935974400,
                -52219191637311488,
                40398707199311872,
                -43772008873328640,
                -49725748373618688,
                -78451546211221504,
                -54886774350020608,
                -9148723795853312
            ],
            [
                79185100855574528,
                -2409219760324608,
                -50164401973493760,
                11321417828139008,
                71997558985064448,
                -8932717005635584,
                56266493939154944,
                -7927968999407616,
                -13945683648184320,
                51469346182004736
            ],
            [
                47352379510620160,
                17193764476944384,
                9308621133316096,
                79812097361313792,
                55666693166333952,
                27874335603556352,
                24938605197656064,
                -25523062199812096,
                -10288379409203200,
                85390718712938496
            ],
            [
                39338236824256512,
                45666252659621888,
                8427575164534784,
                -57115097872465920,
                -39436978122391552,
                42779154168414208,
                -57377026453012480,
                -15016757223751680,
                18360824129126400,
                -78177054851334144
            ],
            [
                -71019706600914944,
                -81433284306796544,
                -33840442462175232,
                -69683610994606080,
                -61637655485480960,
                29374032956620800,
                -10901518202961920,
                -35149073900109824,
                -41371495817019392,
                5118973414735872
            ],
            [
                70153467531886592,
                -42723856464478208,
                66233940507099136,
                -77652510495473664,
                -34564159483936768,
                82985064580775936,
                -74517966053441536,
                -73520176431104000,
                -13676233506160640,
                -658802684723200
            ],
            [
                34014463799590912,
                -33228542766481408,
                84181255922384896,
                -51836741979471872,
                176780836723490816,
                36849427830276096,
                -48023403726110720,
                18037810376212480,
                53339220323860480,
                101010913473069056
            ],
            [
                -262856843238309888,
                210106432865959936,
                -233779227449622528,
                -301277730882715648,
                161827512945475584,
                183350332800106496,
                -6765475434332160,
                161634376856109056,
                193068984797495296,
                166429896820654080
            ],
            [
                -188843303913914368,
                -104687345348902912,
                -40722182661210112,
                -274836658078089216,
                219888049083908096,
                -142579479569498112,
                -160745971460866048,
                193130832326557696,
                360244127163482112,
                121874885344493568
            ],
            [
                127093597026648064,
                -248006083279323136,
                66733239045193728,
                -193600117633187840,
                207631792969089024,
                -231922856684945408,
                -291617043763953664,
                -3213674114187264,
                123283170761113600,
                335204124230418432
            ],
            [
                12312173367787520,
                -265454972034875392,
                194025869151305728,
                -329498586595196928,
                296334635841880064,
                9290094791884800,
                -276783635472842752,
                -294681451390042112,
                -12319575743922176,
                191171451066253312
            ],
            [
                -70524965023121408,
                -375737208071520256,
                88056699402846208,
                -587068084573962240,
                510728992257474560,
                -131570825554821120,
                -228735595814322176,
                -288877370025181184,
                104848209054007296,
                513351361849458688
            ],
            [
                8392933568937984,
                -501945543618985984,
                44252388080484352,
                -596450698330112000,
                561986506357473280,
                135567696350674944,
                -334478893232685056,
                -279463798144761856,
                -78244382758666240,
                495024873836380160
            ],
            [
                2292549926518784,
                -406476770045329408,
                -209427192378032128,
                -699687968230604800,
                248343427190620160,
                55474205617029120,
                26450794463100928,
                -84215263473434624,
                -30324668133015552,
                545986000833216512
            ],
            [
                -139298992138747904,
                -499432644153442304,
                24453909548367872,
                -753058537520758784,
                489009754958462976,
                -359366991762423808,
                81972603350155264,
                -426132567616389120,
                139818545742610432,
                621707579931754496
            ],
            [
                -19831193298010112,
                -556931123691651072,
                -64067056491823104,
                -1027621159505494016,
                309061276774957056,
                -143441780153516032,
                195939895556964352,
                -259062703488761856,
                90562357553528832,
                596188121209503744
            ],
            [
                -12114209735180288,
                -424994847959547904,
                -82259163568144384,
                -766963580040904704,
                259204231251099648,
                -72766323771310080,
                279966017260617728,
                -102780001912356864,
                -244626390693969920,
                326680984969805824
            ],
            [
                -13366727425392640,
                -457778951805206528,
                127430142074028032,
                -403827977814540288,
                -112475091719159808,
                -165648985866895360,
                313607585557118976,
                -208431945376333824,
                -379812376121180160,
                48973536391331840
            ],
            [
                237429279636324352,
                -466441522884116480,
                168930976536199168,
                -301155925610201088,
                -40133269630484480,
                -174252441015943168,
                276841548811862016,
                -109680906255466496,
                -517296375210180608,
                44790568957509632
            ],
            [
                -12999979094245376,
                -688709138468831232,
                257004847218294784,
                -407835903856214016,
                -60379797003436032,
                -90913557029322752,
                402294365252222976,
                -267246626232336384,
                -637525910123184128,
                -209716707533520896
            ],
            [
                -134616240835526656,
                -488025107936051200,
                56381530343211008,
                -360712828354560000,
                89225016406704128,
                -127130911702515712,
                348099093521760256,
                -123594770638438400,
                -183850696490090496,
                -37003290738688000
            ],
            [
                -89450854377062400,
                -163383235999432704,
                -7296005363990528,
                -298902270370643968,
                303214589334519808,
                102840706980118528,
                112203778635071488,
                -24597080135696384,
                -264988985263128576,
                8004009784770560
            ],
            [
                -120738248019410944,
                -44095230932156416,
                -23494420296892416,
                -122532771255025664,
                436052395881922560,
                46429154815508480,
                -26911625126608896,
                -68127093371699200,
                101169165838057472,
                7306882368667648
            ],
            [
                11478492298346496,
                -160921412284973056,
                76025267646103552,
                -397299077768806400,
                387784350818631680,
                -542085345894727680,
                -91753566733074432,
                -118880279526899712,
                36003536168812544,
                -25906040138629120
            ],
            [
                96844296979742720,
                -220031793049370624,
                187532892212035584,
                -621545608125087744,
                373132533744795648,
                -490743616075988992,
                -200676316771516416,
                -282189075153158144,
                389296660343160832,
                1053694862819328
            ],
            [
                358933337504481280,
                -244760324954128384,
                286228680873607168,
                -560090948311187456,
                311451408895311872,
                -429737763164651520,
                -469273624319098880,
                -116281996111511552,
                736228244314914816,
                161708714150068224
            ],
            [
                173355256707547136,
                -313340026274447360,
                371408052835844096,
                -443086521520619520,
                243164504085495808,
                -366170357398241280,
                -358412306431868928,
                -237900695246733312,
                662883740636151808,
                223786728337440768
            ],
            [
                69219080216772608,
                -446519712218611712,
                107939924082163712,
                -602723687044481024,
                420955070440407040,
                -179702342197706752,
                -35254407973044224,
                -303973114918731776,
                311920659842203648,
                377635995933212672
            ],
            [
                250112472680235008,
                -287786362432651264,
                -103450738365038592,
                -327308290713190400,
                -217752058768392192,
                155039334314016768,
                213689139965460480,
                -174219919523577856,
                -85835213468336128,
                352829467422359552
            ],
            [
                -104260940995756032,
                -48831703686316032,
                -150515720139046912,
                -120565341226008576,
                -174841177953009664,
                139259667418185728,
                296330650112229376,
                -7844165060657152,
                -68824222398414848,
                242179118328709120
            ],
            [
                -11870704416849920,
                -29195461101355008,
                64529246512480256,
                1992382044176384,
                31326374765527040,
                51326521339543552,
                65845585269227520,
                58221408433471488,
                28011514711506944,
                -15083722206347264
            ],
            [
                56782310921469952,
                74374591455166464,
                64393555610697728,
                74018873673777152,
                12797094502858752,
                -69352378821771264,
                32729699494920192,
                26915340273319936,
                61744411192590336,
                60122064605937664
            ],
            [
                -24801007330394112,
                -12425094500450304,
                50404258717106176,
                -85832172631490560,
                78306427856224256,
                -80286528038764544,
                68086033484349440,
                -49304064189530112,
                -6684869635604480,
                -37221895984119808
            ],
            [
                62384043492114432,
                75626497112539136,
                30050470978387968,
                -82465665595736064,
                -21058209619902464,
                5780950281617408,
                -84203976299380736,
                -47613092615421952,
                -56047880103788544,
                4822313581150208
            ],
            [
                -98147965582966784,
                -230010840323981312,
                244403395991961600,
                -156264636943958016,
                -114613049129697280,
                -18147606920167424,
                203064610645868544,
                -14582831309127680,
                156722617896665088,
                -269300273434853376
            ],
            [
                -260920397103366144,
                -57576587813453824,
                -253558754438545408,
                -306842531029581824,
                320913084409446400,
                -24849441676591104,
                -114208720908451840,
                87521623787175936,
                133555959439032320,
                106281147582906368
            ],
            [
                -87738682844381184,
                133356148970487808,
                120194831577251840,
                -70984728387256320,
                363198136950194176,
                -32218284854083584,
                -262778777912737792,
                -280025390888517632,
                -309229124096884736,
                -109135093221556224
            ],
            [
                293714671431581696,
                -10323443522207744,
                73943617256816640,
                -319317246360944640,
                67950187963744256,
                -228204909655228416,
                175540725046312960,
                111039241202434048,
                -251419809185529856,
                -117320974470217728
            ],
            [
                261093793523040256,
                -126950273967980544,
                184970978579709952,
                -408646965480390656,
                298312966497894400,
                -166752483224322048,
                129531712521633792,
                -146456495007989760,
                -99954703705571328,
                -61310765524582400
            ],
            [
                79216857843761152,
                -298167590444859392,
                129164784875601920,
                -414551617799454720,
                200801128521138176,
                -378098168774000640,
                326203693844135936,
                100416129222049792,
                -224168671189139456,
                121261589784428544
            ],
            [
                -7129488945053696,
                -118925170525077504,
                -186467757502496768,
                -592383329941061632,
                198124573621747712,
                -318314113799290880,
                214901471794167808,
                164762624876085248,
                77849597954752512,
                133262063416901632
            ],
            [
                -128753704965767168,
                -173441293492420608,
                -153961142903898112,
                -682215010478325760,
                208152583523532800,
                -166060959129927680,
                302043678170415104,
                72902895141388288,
                -75553912165236736,
                348051196046475264
            ],
            [
                85527917148241920,
                -47535495441285120,
                -120021512466989056,
                -833110818043199488,
                277037794457550848,
                -224830525649453056,
                282982561771159552,
                168940013147389952,
                -87727000533336064,
                261286671914369024
            ],
            [
                289358990477885440,
                -149590085967282176,
                -285421759597903872,
                -727455034878459904,
                151248767977259008,
                -378616863384403968,
                414895215183134720,
                262158842333233152,
                -29331136970752000,
                449584051125223424
            ],
            [
                59398736278716416,
                -183159584712556544,
                -280843977295396864,
                -904347764089946112,
                94672941903511552,
                -223534184260435968,
                604762525199761408,
                171034239200919552,
                -257821938976555008,
                169897120839499776
            ],
            [
                -282468643164389376,
                -179700503951704064,
                -270676157618192384,
                -1015311714515681280,
                167654065579229184,
                -97271534556545024,
                512941347091513344,
                181244407255662592,
                26648938484334592,
                96626782656004096
            ],
            [
                1152921425149952,
                -120827926936551424,
                -184181512051097600,
                -759957629387669504,
                88387678172610560,
                -329629943874977792,
                294213609192423424,
                229225720302272512,
                -19165518464286720,
                187973727655297024
            ],
            [
                -170100289972469760,
                -201699343621685248,
                -13047706918322176,
                -499037610241425408,
                -21521432580194304,
                -354902046840717312,
                298361001412132864,
                270592714993565696,
                -51247524006068224,
                -86868814527987712
            ],
            [
                -136672301809664000,
                -121197620541521920,
                -123608093626990592,
                -292210608244260864,
                -88073879272030208,
                -140792944973053952,
                292068874323492864,
                241514824326971392,
                -116963616011321344,
                -21477838662139904
            ],
            [
                29558248398913536,
                -139876948707901440,
                -21815558383075328,
                -139481184651444224,
                -8515070090805248,
                -236621860144414720,
                74628123374649344,
                385361095910490112,
                17643946842783744,
                -14350449956093952
            ],
            [
                -131669240435441664,
                3201576533491712,
                -13904920113577984,
                -173152259373268992,
                275721129283289088,
                -235349982889115648,
                -33633090031058944,
                72970532286365696,
                -24280848136142848,
                -15791752933801984
            ],
            [
                65658522263617536,
                -71728513643708416,
                159420252495544320,
                -138678412314148864,
                244660716072599552,
                -232332321687076864,
                -141638529544355840,
                156570885292032000,
                -97836726482894848,
                -73097723447869440
            ],
            [
                29649095547158528,
                116797856043499520,
                34113905177395200,
                -130325834794795008,
                172548112093544448,
                -301007010504114176,
                -95944621590315008,
                255085976089526272,
                -181211181388660736,
                -127224834047344640
            ],
            [
                73702463433080832,
                132265278816911360,
                12323645225435136,
                -198644573902209024,
                369190887638433792,
                -39277914008584192,
                -167258808328912896,
                47081246815158272,
                -173555110125764608,
                -17591422613979136
            ],
            [
                217450912841465856,
                179023136069517312,
                29917636229857280,
                -325859718503333888,
                332159645252583424,
                120761612641501184,
                -335982131786285056,
                -120228126163730432,
                82055315830341632,
                17020757825552384
            ],
            [
                212184681641148416,
                15346572057378816,
                147073303851302912,
                -446335647100174336,
                297461085504536576,
                49331178318069760,
                -302525882738671616,
                -527677757841211392,
                87855514544766976,
                -15822395377975296
            ],
            [
                246036205118947328,
                -9422017933606912,
                -125131355318124544,
                -241850587690303488,
                397395559914143744,
                42954431783763968,
                -115724277428256768,
                -275123235475947520,
                -125028843038703616,
                172701975001956352
            ],
            [
                140217943341400064,
                241583183026454528,
                -356459264543293440,
                -27917165017432064,
                16087390565171200,
                171467189084225536,
                46834483764133888,
                -134305388282511360,
                -309500325511823360,
                25692558789181440
            ],
            [
                123610653427499008,
                42630891897356288,
                -180189030711820288,
                -159041453559906304,
                328863481191202816,
                -195420032715456512,
                -205420451747332096,
                39381199382118400,
                -151795637573124096,
                113961665799651328
            ],
            [
                40246330349584384,
                2232491922423808,
                74055398075662336,
                -64719728312057856,
                81494848368017408,
                -69909028058169344,
                26626720618512384,
                44823893608759296,
                -70013232554704896,
                -1944735556042752
            ],
            [
                -4985213100752896,
                -2313815114907648,
                -13311795867418624,
                -53117149039820800,
                25378480715726848,
                -85769749576810496,
                -36181057904574464,
                -65493909052063744,
                -22127978599153664,
                3936394971971584
            ],
            [
                116499098118389760,
                22399384025038848,
                -99143650671329280,
                10885394895732736,
                -36714505727639552,
                -41509755109244928,
                82815456322256896,
                73507068190916608,
                55878289025138688,
                -86757531925348352
            ],
            [
                94569304342659072,
                -135292079709356032,
                137023509875392512,
                -32501787055357952,
                -248376893575790592,
                105067054817607680,
                445704286907662336,
                63165117654630400,
                249925779041812480,
                -348741929866887168
            ],
            [
                -178291101843587072,
                170174214949568512,
                -351424463360753664,
                -73015801241665536,
                198216279763451904,
                -12645748445282304,
                266802990470397952,
                332544989718380544,
                -145212466320637952,
                -344270387875414016
            ],
            [
                306802364495429632,
                98092732303540224,
                325455716699602944,
                -49554546682232832,
                -205300690879250432,
                -244124429276151808,
                25868416225116160,
                131569339496136704,
                -35347074039939072,
                -319264950839148544
            ],
            [
                368400854174138368,
                -130101783530831872,
                320830621037363200,
                -365163479625105408,
                -82182850589229056,
                -337631158709780480,
                456501216214515712,
                176861307230748672,
                -466755880130445312,
                -4438774612230144
            ],
            [
                104588062884888576,
                -166065030758924288,
                36285124962156544,
                -338687858103549952,
                -136667431316750336,
                -126190227965345792,
                516251839163793408,
                259137693617750016,
                -279012190923522048,
                77248173684293632
            ],
            [
                95634542131412992,
                81605332106739712,
                150456105992978432,
                -274989335575527424,
                -157345817651314688,
                -234360834740977664,
                300420146172788736,
                136890675126861824,
                -53057470469242880,
                12116568745967616
            ],
            [
                149269423708962816,
                11003978942775296,
                111776498108596224,
                -397166036861845504,
                -17435097615564800,
                -96043311348842496,
                516391820737904640,
                201598841386958848,
                172334222722203648,
                54548502725787648
            ],
            [
                106577053649731584,
                59253093937709056,
                45024623200305152,
                -434137768180842496,
                43433075824132096,
                68049414593183744,
                519976125565239296,
                135713458950766592,
                15560735232884736,
                189974495220465664
            ],
            [
                -15003209823158272,
                184131003235696640,
                101066713688178688,
                -645939991574216704,
                225806067341197312,
                -15725377435467776,
                442046830197342208,
                96704890931249152,
                -35365763590127616,
                188036743415463936
            ],
            [
                13941221177163776,
                277293345011662848,
                -74005894282608640,
                -392789568266436608,
                70380782970994688,
                -12386789834620928,
                349299073024524288,
                304101448541536256,
                23949757697228800,
                124691078220611584
            ],
            [
                -12468538094649344,
                113064910987984896,
                146350151617740800,
                -319614492457566208,
                135078834583109632,
                70007627622383616,
                517300189141139456,
                143505783756161024,
                -22767658143318016,
                65312468158644224
            ],
            [
                -37581590905225216,
                24198249472589824,
                284732537605980160,
                -317912792055152640,
                -54492655266037760,
                9971922997608448,
                494947530065313792,
                244476204277563392,
                164891250556665856,
                -5750565535481856
            ],
            [
                -163865612366381056,
                108235873098661888,
                174798417258610688,
                -301805152866664448,
                36095716904402944,
                77393884744777728,
                464986181805801472,
                131328400420765696,
                109022212891082752,
                -5297420715950080
            ],
            [
                -379622813444603904,
                223831602155749376,
                78404653758283776,
                -218490037229060096,
                162342187466489856,
                69718395934736384,
                278114130441797632,
                185521559027318784,
                65492508892725248,
                -60626358190997504
            ],
            [
                -330489074773131264,
                172809039946711040,
                220405334945038336,
                -434054583254253568,
                93345719699636224,
                8270654776279040,
                93386083802284032,
                217104137181986816,
                133297488307159040,
                -62890587640037376
            ],
            [
                -159663467903582208,
                197325623805345792,
                175163901795631104,
                -178340150370107392,
                95262907201224704,
                32587016386379776,
                -29473034100277248,
                287170429762666496,
                82125392516743168,
                5354199109861376
            ],
            [
                -326113465171181568,
                243428524315115520,
                33207718617546752,
                -353091975823491072,
                65522736872554496,
                -12226826998906880,
                -6210089455190016,
                173728575264915456,
                -67614347291000832,
                -38604265568075776
            ],
            [
                -278817731984228352,
                47413638629163008,
                296917067766956032,
                -217062630618038272,
                -194795596010225664,
                -119736232149254144,
                -119516252514287616,
                141029666390540288,
                -29562515448922112,
                -86671761428447232
            ],
            [
                -151731470761721856,
                -84521460281901056,
                178232982346137600,
                -129023205573656576,
                -285114961494016000,
                32179202799173632,
                -174046162326650880,
                68245192087437312,
                10034571538071552,
                -23397010438619136
            ],
            [
                -157062796486377472,
                115872866116829184,
                268964406992306176,
                46039627051565056,
                -182817602236579840,
                -120727699579731968,
                -361206096758571008,
                -77879284768702464,
                -171220623601696768,
                -110086162189647872
            ],
            [
                -52759262299947008,
                201865094999572480,
                88504664491819008,
                -83181834212474880,
                -208823405875560448,
                -176664821066891264,
                -362418102169763840,
                -46856602845708288,
                49056678368247808,
                22302487415357440
            ],
            [
                238092388227088384,
                125070701789970432,
                169473345006338048,
                -57248821679226880,
                108698879163105280,
                -209271285065187328,
                -588435670880485376,
                -379991596516507648,
                81748663755341824,
                22184292062855168
            ],
            [
                250789256446869504,
                478288245277327360,
                -312592392727298048,
                254061299971915776,
                76480843417124864,
                -109592790706421760,
                -290983175310540800,
                -72429366407069696,
                -260838775544872960,
                -206098678622978048
            ],
            [
                73454635230167040,
                291376010199302144,
                -326014680923373568,
                6122851690086400,
                243454105140330496,
                100344841354870784,
                -86249652042596352,
                -113169407542296576,
                -362981567519260672,
                -57780001759559680
            ],
            [
                -271060368212623360,
                239813828299194368,
                -300944819377668096,
                112291679435751424,
                355976785097129984,
                149754875272495104,
                159793777211342848,
                -22404988957360128,
                35491142275432448,
                -180021509807407104
            ],
            [
                -246507431750795264,
                -131578977402748928,
                110003604328284160,
                -147073991046070272,
                341905888119881728,
                -169217416495104000,
                -43794411422744576,
                7638722279374848,
                389984129988427776,
                128117963906613248
            ],
            [
                82866343094779904,
                78457241337856000,
                75286009285181440,
                -23499116843630592,
                -66350102192586752,
                13450093814349824,
                26496752760651776,
                -24253523554205696,
                14112918937272320,
                64925766483181568
            ],
            [
                -1118719526830080,
                -19326380021907456,
                -55312701961797632,
                77194194535317504,
                -19911565021020160,
                73481212487794688,
                78152092501409792,
                29598966836363264,
                -4514246851297280,
                -35859770728513536
            ],
            [
                45352904730607616,
                -418739245272793088,
                322377427739213824,
                -351690957491535872,
                -109043558878543872,
                157787804145811456,
                420439640005148672,
                -39702084978737152,
                -27747391402672128,
                -24112038741540864
            ],
            [
                -184942339737780224,
                237652463316893696,
                -66273187918249984,
                67288015675850752,
                -176668171141382144,
                -404481946714898432,
                340214839236362240,
                265436194437857280,
                -208287015999897600,
                -368889621452423168
            ],
            [
                396888788132954112,
                -139946638847246336,
                366338342159122432,
                -251661323786518528,
                -312200073234612224,
                -227377320996896768,
                368205278543347712,
                174197379535208448,
                198023229573431296,
                11002843997667328
            ],
            [
                271245446943342592,
                -125606026513743872,
                258915815607238656,
                -68905710812921856,
                -315888969105539072,
                -74075258004439040,
                478013092492476416,
                257449170175000576,
                -378566732526125056,
                -287114371849519104
            ],
            [
                179245203058589696,
                -12014558977720320,
                147241735288782848,
                -137166188688965632,
                -128862436357832704,
                -5228395222794240,
                389416404031373312,
                337250452808663040,
                10645470506385408,
                -67056156161343488
            ],
            [
                149859174258311168,
                150142178243379200,
                17303006970118144,
                -87138083207643136,
                -38681081058164736,
                -583979858132992,
                155805006723809280,
                306687225012158464,
                -117016048972070912,
                -119817157923045376
            ],
            [
                360312503042834432,
                46020613231345664,
                1125630934515712,
                60291930562494464,
                143472265831383040,
                162802504881405952,
                126098513233707008,
                341199177021128704,
                -52545463122919424,
                64211904263880704
            ],
            [
                267558062900903936,
                176036278372925440,
                -21577572097720320,
                -42157668105715712,
                148513234586959872,
                185194866634915840,
                46106168979881984,
                293908048039116800,
                -30408364160712704,
                18934129248698368
            ],
            [
                213006549403041792,
                132264256614694912,
                54015578888732672,
                53328087768629248,
                203551625577496576,
                100529963035262976,
                225352948291469312,
                150927882380640256,
                -46406232575049728,
                192350608567566336
            ],
            [
                47791496966963200,
                348979390018748416,
                -196378789675008000,
                177813123523149824,
                101501063730823168,
                179975072621002752,
                339321382959579136,
                187877537567735808,
                -63233240130912256,
                138047576107646976
            ],
            [
                62207284113047552,
                210600800781598720,
                -43978515195887616,
                181443762457673728,
                108874259857670144,
                130343495700316160,
                314745889329512448,
                55444591817523200,
                -24655798781083648,
                163575272577171456
            ],
            [
                -5746228692254720,
                162334714223394816,
                20672959643385856,
                70590501929091072,
                189186884117725184,
                30116993579352064,
                477674786508505088,
                63472267945836544,
                101568967163772928,
                89079717663080448
            ],
            [
                -28091905761869824,
                98901955681714176,
                138996617851174912,
                -40830098009489408,
                91741102737981440,
                117954937412911104,
                330733544311619584,
                61264732065103872,
                240116073737748480,
                189600403568984064
            ],
            [
                5081434863697920,
                168058015843352576,
                207514007785963520,
                -104362353763549184,
                46779370743791616,
                30796775233159168,
                393625506341191680,
                64386494684463104,
                250210019977461760,
                92833278561615872
            ],
            [
                -109656656870113280,
                127756714207346688,
                175597641952919552,
                -53171781023825920,
                198176267848122368,
                62990999680450560,
                227727515450343424,
                252606096332554240,
                115703747484581888,
                239094180758945792
            ],
            [
                -166131396593582080,
                168809635120152576,
                156135341248479232,
                -133980164768923648,
                142978413311819776,
                164883931932393472,
                -52311795427180544,
                184745475616800768,
                112544206332887040,
                191910752376848384
            ],
            [
                -178029263457353728,
                43795313365876736,
                24712453694685184,
                -205900165234556928,
                63159474067603456,
                -733684500004864,
                -127796554323984384,
                82651431521222656,
                55342921351692288,
                156350673728831488
            ],
            [
                -276902880944848896,
                101270698864934912,
                232684577724825600,
                -268571159786684416,
                -44748499752845312,
                -54613966617313280,
                -101304388588404736,
                83792621511639040,
                83220927004803072,
                150112405530083328
            ],
            [
                -311186392233279488,
                146226250401185792,
                77352670238605312,
                -302003099319402496,
                -37888801325973504,
                38301801086189568,
                -250321001932390400,
                -107882912686276608,
                -80057202554961920,
                91125891622502400
            ],
            [
                -485466544378216448,
                62287402432987136,
                93737059939778560,
                -265273483896815616,
                -139152705552646144,
                24657044321599488,
                -137807410126389248,
                -56804971168923648,
                -78719981667221504,
                -8582549932605440
            ],
            [
                -565837958150619136,
                187778907938750464,
                202950364515794944,
                -136275094644195328,
                -280618371253272576,
                -84198349892222976,
                -202331116131057664,
                -83230221314031616,
                -80654031210414080,
                -7389126697418752
            ],
            [
                84673175706664960,
                199875545888980992,
                313330439907442688,
                -223486252425412608,
                -81229427979059200,
                -200303960286822400,
                -517273594703642624,
                -228227295024775168,
                -238439593383297024,
                -35731978271588352
            ],
            [
                225325752558551040,
                319765125550571520,
                159731019149213696,
                -180070523974189056,
                89395603917766656,
                -239708051844628480,
                -298678416675176448,
                -479423525392744448,
                -239967485049176064,
                -149499376257990656
            ],
            [
                212242234202914816,
                435712921666846720,
                -176898948324130816,
                -35199771694071808,
                455198363655077888,
                140857369482493952,
                -33095624266088448,
                -406373862628917248,
                -187886144682196992,
                -185326069295874048
            ],
            [
                -141391706363789312,
                -31405279757205504,
                -14000064376602624,
                -59837943929372672,
                536418669123600384,
                -122726457100206080,
                -98122565146378240,
                -195253765941493760,
                9673068435734528,
                74212250281312256
            ],
            [
                49624168102100992,
                -173898604430229504,
                327497200554737664,
                140177501929340928,
                323095958587965440,
                -279299850653138944,
                -281239681222311936,
                -103219694894317568,
                -86754791736213504,
                87971951108161536
            ],
            [
                -37779142220972032,
                55557034061332480,
                65998245586796544,
                56831694455439360,
                -25108576380911616,
                -42746160229646336,
                -60288610552774656,
                -44083681765097472,
                -44259453301686272,
                -71978588114518016
            ],
            [
                -163622276699258880,
                192459425858977792,
                238228521510502400,
                -188544631888150528,
                203103488689831936,
                41384556812566528,
                225277322507321344,
                290594566669598720,
                -164940986277953536,
                -261802497486618624
            ],
            [
                39909042272862208,
                9120280374935552,
                -374465622873997312,
                -94504596365377536,
                357897253953732608,
                -148020825176408064,
                41071144459042816,
                363568912886923264,
                -414679092428800000,
                194716293734072320
            ],
            [
                240183762422333440,
                -218650411307892736,
                -314003718980763648,
                -117122263513300992,
                -150159495551516672,
                -124603280499146752,
                716265167603630080,
                600276105441574912,
                256618076823355392,
                -84090992889692160
            ],
            [
                185221272093851648,
                -127750203036925952,
                412508690835308544,
                -100374691377577984,
                -191756356892491776,
                62414176982663168,
                190819744784318464,
                370600598984196096,
                81680932121083904,
                97459473735483392
            ],
            [
                286249485695188992,
                87239100838445056,
                250432464923656192,
                -70654831949250560,
                -28688309215559680,
                66712653266944000,
                -71587947954044928,
                609054881155645440,
                -109633232118480896,
                -49419311046983680
            ],
            [
                132030541674315776,
                -18852140470501376,
                35416300322816000,
                -63000371299090432,
                35040705432780800,
                87594045525721088,
                187799626860986368,
                486118073737150464,
                -180394055270662144,
                -111804235007393792
            ],
            [
                270768791472832512,
                123606684877717504,
                63265018593935360,
                -46173037325713408,
                87265652326268928,
                301508903202455552,
                5143762892226560,
                316515896891801600,
                -57857663358205952,
                -118733881271648256
            ],
            [
                323063522994946048,
                91659558488899584,
                96291079422214144,
                49905003128684544,
                241207167229624320,
                274403776914259968,
                60579637536751616,
                359647607745675264,
                -75158654914920448,
                -133492247894163456
            ],
            [
                294512092239626240,
                130034515753041920,
                28477836490702848,
                60325646055768064,
                199644304849764352,
                127164034490302464,
                188396919372906496,
                246449312253345792,
                -302799970371633152,
                -81383385376751616
            ],
            [
                188661729876508672,
                177921820555476992,
                -115546354113052672,
                42518475423350784,
                170568458587602944,
                117485102350467072,
                329689283143139328,
                281363393460305920,
                -65403564414992384,
                -54316080570564608
            ],
            [
                191801007372500992,
                84496119974854656,
                -124828886541271040,
                81536019924516864,
                186640020050804736,
                117080765539287040,
                268959940226318336,
                80408926016765952,
                54058541446594560,
                -100736533782331392
            ],
            [
                100356592385392640,
                112182037510619136,
                -144533672509308928,
                32822419248906240,
                281136808165638144,
                111686235075903488,
                256043049421897728,
                45590506616389632,
                -7855007168724992,
                -40486041064308736
            ],
            [
                -72596371915407360,
                158512880524722176,
                -248776325534318592,
                8477822523801600,
                73391791268691968,
                -33854171325136896,
                370425158160089088,
                63536791239524352,
                71057682701746176,
                -17577533763485696
            ],
            [
                21708946557370368,
                182714024805269504,
                -218637612305350656,
                73318562076295168,
                179398791089094656,
                -40113379636936704,
                475339767408492544,
                -29718545168334848,
                94760859884060672,
                53279576113020928
            ],
            [
                111351485324853248,
                116807786007887872,
                -171800152128880640,
                62066374826000384,
                332293820030910464,
                -17015309659537408,
                415751494223003648,
                -103232734415028224,
                109919311300132864,
                111374111212568576
            ],
            [
                23571766215442432,
                97099890483527680,
                -208057527307337728,
                137710867851509760,
                217614843153219584,
                -97913322929651712,
                510246856408694784,
                15044857047285760,
                210524041126084608,
                134648100902928384
            ],
            [
                6152480521977856,
                129069239033135104,
                -131295904698204160,
                191101769516843008,
                247617010781913088,
                -66742567714160640,
                231864118712205312,
                22236529602592768,
                168224351336792064,
                -3623225552535552
            ],
            [
                -67573708310446080,
                88907815892025344,
                -213508665439682560,
                92878856754561024,
                110189164095340544,
                -169895024895459328,
                185168323737026560,
                -9224388234706944,
                89448432015507456,
                -55358606572257280
            ],
            [
                -132655622624641024,
                141205072854908928,
                -53046797475512320,
                194694080163217408,
                81964786509676544,
                33622704800137216,
                -30929902039465984,
                -12249514089906176,
                61590737262739456,
                -94230268214247424
            ],
            [
                -116978931864698880,
                125529404297183232,
                -134589637808095232,
                -18305101223428096,
                30061272821137408,
                -1098846914478080,
                -104645658396327936,
                -55334314237231104,
                66909418603675648,
                -113676102014074880
            ],
            [
                5318332911714304,
                119795116150882304,
                -90088897538686976,
                19344874151084032,
                -100110868716453888,
                126916506935099392,
                -146649442118795264,
                95854727924809728,
                160099853760724992,
                -128050386891177984
            ],
            [
                -200161590710894592,
                107691786641604608,
                -56610864416948224,
                22601696312033280,
                -146139938738405376,
                62455795215761408,
                -501189526295674880,
                161696447723470848,
                18057008880025600,
                -40076550292373504
            ],
            [
                20052525847674880,
                321704389184061440,
                385805710924972032,
                -30543348540375040,
                -28256267717836800,
                183759900881453056,
                -590637717793013760,
                27508911196078080,
                49023091723993088,
                -121344310854549504
            ],
            [
                144774482735661056,
                415936693212807168,
                248054582050029568,
                -273643928480120832,
                352453709323567104,
                -112600693742764032,
                -670145327742844928,
                -248268041924640768,
                -246874342216957952,
                -222169329553113088
            ],
            [
                283252113918656512,
                371273706258825216,
                202583247891202048,
                34802723442393088,
                625820646772834304,
                43591366843826176,
                -125297441703460864,
                -571064349234298880,
                -178735613778853888,
                -42078043707015168
            ],
            [
                135991910270500864,
                333136630053339136,
                77793247983828992,
                1612668951592960,
                359641491712245760,
                -116791920398696448,
                -77663677410443264,
                -267313232585162752,
                -206121837086638080,
                -123070904887410688
            ],
            [
                -96376738249965568,
                83585853196075008,
                183811492028612608,
                -238716601594019840,
                438315774927437824,
                -121027419577516032,
                -164314676966981632,
                107193321327165440,
                -138428952023662592,
                101728903155941376
            ],
            [
                156818962603048960,
                -35363010516090880,
                -71598105551699968,
                46646540290228224,
                -2406578355437568,
                158138548355072000,
                -102769358983397376,
                -35480434921963520,
                36498614901538816,
                -5695350509666304
            ],
            [
                -322140482983428096,
                142850698164305920,
                171315198781554688,
                -345448033548238848,
                415630376145256448,
                145447641549897728,
                433569767345881088,
                544644218690207744,
                -276856443758444544,
                35706732453822464
            ],
            [
                286682658916794368,
                -237774509107576832,
                -555902186966482944,
                186629179553349632,
                101842341832163328,
                188014254966702080,
                92946219021631488,
                591545570800173056,
                -421044474479640576,
                120640150966370304
            ],
            [
                109522318883028992,
                -164104532807122944,
                -226870343057276928,
                208317132310577152,
                -241498005235040256,
                13360597433319424,
                453190140026683392,
                863161639061422080,
                -31746536383709184,
                -95232799480479744
            ],
            [
                115739593281634304,
                -188910786440069120,
                443507668833796096,
                -236911942235586560,
                -156384226013347840,
                37872214162276352,
                406202235735769088,
                568252863642337280,
                53885381250121728,
                72912043421728768
            ],
            [
                150349144127438848,
                175975684974313472,
                305298679265230848,
                -189672902616940544,
                -122562878975770624,
                123411994010189824,
                55183539410305024,
                518434678982574080,
                95006867020840960,
                -4547810410102784
            ],
            [
                188418067791872000,
                136397595701411840,
                133444453498093568,
                -98705675676286976,
                -1585153780482048,
                223647210619797504,
                46005933033127936,
                591317490856886272,
                -86918335500910592,
                -109354789388681216
            ],
            [
                119241924363157504,
                41589684450623488,
                182041776524099584,
                -101148378196344832,
                126733884925673472,
                206573014811148288,
                -69941824428441600,
                339736345519849472,
                -17525546405593088,
                -125066810549600256
            ],
            [
                92790535047086080,
                224881652940144640,
                -15125717322825728,
                39217939085262848,
                319846729929195520,
                291578251619336192,
                69409600671055872,
                199282428085272576,
                -268062171802370048,
                -151479115663278080
            ],
            [
                211672858978418688,
                223545900931219456,
                14946310096420864,
                65101838667481088,
                127220968576778240,
                126279726493859840,
                25771592629878784,
                261297306253393920,
                22313104574513152,
                -16224663088660480
            ],
            [
                34299748412293120,
                143318222534344704,
                -110756786973179904,
                47072837269192704,
                186030272133726208,
                248970612674920448,
                51798061504004096,
                193728640234553344,
                -19161470457610240,
                -137058505268920320
            ],
            [
                98549708233900032,
                101440882649071616,
                -195008540488761344,
                49221502033199104,
                56245577448423424,
                159139430353862656,
                -17031589733072896,
                38800519803699200,
                -111574445667123200,
                9916501813362688
            ],
            [
                -5176833066663936,
                104171416697438208,
                -241211032700190720,
                24099557566578688,
                124938098969673728,
                99613408424361984,
                172237585958043648,
                55539068213133312,
                -47368258004713472,
                -175035207395573760
            ],
            [
                161492488316518400,
                111030960505487360,
                -299918837589999616,
                30849203898941440,
                -15903946069508096,
                17505230136541184,
                402587178942595072,
                19390952707719168,
                8465587235717120,
                70863833647808512
            ],
            [
                39447045525733376,
                189558467508305920,
                -226271298198700032,
                54726473285632000,
                184488859910799360,
                -204889799947976704,
                410544653830455296,
                -71367212404834304,
                -28192015007088640,
                70926918127452160
            ],
            [
                66287859526533120,
                84858125588365312,
                -222344169081798656,
                141645873938432000,
                116201362395496448,
                -131478870305013760,
                555312608215826432,
                -134726999452155904,
                86259736625807360,
                -59606492436758528
            ],
            [
                -4892123442708480,
                108714152066809856,
                -289641977283084288,
                235558151364018176,
                137524199982891008,
                -69372285995188224,
                270891009062207488,
                -56531003795046400,
                181342624567787520,
                -103611670789619712
            ],
            [
                110930776098340864,
                123190485366865920,
                -171195386373865472,
                133091596164923392,
                49926404950720512,
                -151573742382743552,
                96689480588591104,
                20633774509260800,
                201781119799001088,
                -138020852821131264
            ],
            [
                -104875430556729344,
                23552964996104192,
                -132342914645753856,
                272189343316049920,
                33355068208054272,
                28988031360827392,
                75013175782670336,
                185323200257720320,
                192106499806330880,
                -197573701116362752
            ],
            [
                -234566168537464832,
                70935933263806464,
                -94052250409762816,
                146384253658071040,
                -55492132810522624,
                55371641798000640,
                19946596921769984,
                86425075686834176,
                80603908942069760,
                -104967059389022208
            ],
            [
                289483748540416,
                69421519205302272,
                -66972099356393472,
                154302627163668480,
                -10731569568284672,
                -46243947235770368,
                1753512471953408,
                155138702677377024,
                90838377921773568,
                -232956311715708928
            ],
            [
                -111126317369393152,
                4405490494734336,
                -55753704908783616,
                218328941595721728,
                140025657655558144,
                235489157009375232,
                -123459118391361536,
                -6875470083653632,
                18945644056018944,
                -127881689165725696
            ],
            [
                -200944460169740288,
                93206081722908672,
                91618094874624000,
                349413971989626880,
                16985121408155648,
                160440856984158208,
                -121540642399584256,
                323546208599539712,
                977721991626752,
                -45771689811771392
            ],
            [
                -32767153757224960,
                438685691870707712,
                200376201636741120,
                178209291306532864,
                212963032794398720,
                260192726564208640,
                -539718509676986368,
                177201159402946560,
                165069955555917824,
                -143784535723606016
            ],
            [
                57500962029305856,
                542367920383066112,
                203089796334092288,
                -63668414807277568,
                452481676581273600,
                111511326827741184,
                -861585970179342336,
                -94949709596065792,
                66758094020935680,
                -38135813485101056
            ],
            [
                94518022433144832,
                533283274278043648,
                62313056272646144,
                138262221393231872,
                645051654898450432,
                -707730683723776,
                -423514802229346304,
                -253165868010176512,
                -384476195208560640,
                -179998007746363392
            ],
            [
                245705853414408192,
                82257918027628544,
                469434565333614592,
                105106121840132096,
                167768792745639936,
                51356650535124992,
                -12077964506169344,
                -374943257597050880,
                -44276388357734400,
                -77489928803450880
            ],
            [
                -95833433476956160,
                38202372593287168,
                30202270155014144,
                -69241173528543232,
                271343234758737920,
                -249614685970628608,
                -131757991639646208,
                161232419456811008,
                -187620801602650112,
                76794985915088896
            ],
            [
                -283762991688581120,
                188781044067991552,
                -245059821613613056,
                -204295891870285824,
                -229015593322283008,
                176325192232992768,
                -267639907797696512,
                172062986947526656,
                257790465456209920,
                313125346629124096
            ],
            [
                229870601051832320,
                -370134543492972544,
                -407858272045891584,
                180262526192189440,
                448124277640658944,
                293821255339999232,
                409608900715741184,
                455318004264075264,
                -252794645396848640,
                -67711791509012480
            ],
            [
                290638547134709760,
                -2184928380846080,
                38816565801517056,
                128522575595700224,
                -101059910459981824,
                67473901860421632,
                -43450856988737536,
                362756683031642112,
                -185736633809633280,
                90200867336093696
            ],
            [
                60639956057456640,
                -166527375398404096,
                175038179512942592,
                3099947675156480,
                -80076332339298304,
                38112745215754240,
                220531761602363392,
                419820271361327104,
                -12829595594129408,
                -34114736253566976
            ],
            [
                261249632116408320,
                -288371319798497280,
                302491660439257088,
                -200715160455741440,
                -175843434341335040,
                53238748153905152,
                529664850230509568,
                375342586476363776,
                -146750614368419840,
                -94965575205257216
            ],
            [
                169878016824967168,
                144553463718608896,
                228545998778007552,
                -96148331889164288,
                -128926053413421056,
                254528540874113024,
                204340301832126464,
                308486403992322048,
                -25443656844443648,
                -134899184691052544
            ],
            [
                242304857791266816,
                135860991077384192,
                105409054473453568,
                -22097361924784128,
                35095315941949440,
                278608429637959680,
                143952606383833088,
                226922174722605056,
                49342066060165120,
                -64172708392337408
            ],
            [
                192746673271734272,
                6806911131320320,
                151496347072069632,
                86747833889193984,
                -28804550357942272,
                288286519964205056,
                168736861194289152,
                326644151330275328,
                60787002852769792,
                -203893573693734912
            ],
            [
                166819948570607616,
                137553440120242176,
                -115557314869592064,
                135486581598322688,
                143463727436398592,
                230476758376251392,
                40218056579874816,
                168019429857165312,
                45451216532013056,
                -168550047296782336
            ],
            [
                132767686911328256,
                168857103098707968,
                -14253875468959744,
                167308544050200576,
                104947311129395200,
                184132858661568512,
                -157836165477564416,
                182566535628324864,
                60825180817063936,
                -63841600773554176
            ],
            [
                -9257543234748416,
                87720875909971968,
                -145970991904849920,
                55045679550038016,
                11331025669980160,
                223692582654312448,
                50837165650739200,
                94071775331090432,
                -26325918288969728,
                -75494495587663872
            ],
            [
                50565259861164032,
                -7991890460803072,
                -232287069911646208,
                65138109666295808,
                80759378168250368,
                227209834452221952,
                -84755733568028672,
                132683256444223488,
                -76412424588099584,
                -67983177607544832
            ],
            [
                20703408814030848,
                -51203161288867840,
                -143072636304359424,
                9955826533924864,
                67407690644586496,
                183894006940303360,
                22825627316912128,
                173130818896527360,
                11108634410876928,
                -169925106846400512
            ],
            [
                -44830928765190144,
                46902683549827072,
                -124605402212990976,
                -97238179840524288,
                39551537785077760,
                71864187365621760,
                227552074626236416,
                23573464875008000,
                -138717905813504,
                -10951686642204672
            ],
            [
                50398108323938304,
                -23027845114626048,
                -269818487008919552,
                38452146416386048,
                42627073671430144,
                -84129072069738496,
                398926492416868352,
                28269118259986432,
                17134223345319936,
                -56337592827772928
            ],
            [
                32108191957385216,
                -9507455570542592,
                -279700571101855744,
                81860470343991296,
                -12455354692534272,
                -8779860730183680,
                393483325743824896,
                97219247624683520,
                110613524044054528,
                -1379643890335744
            ],
            [
                -122727298913796096,
                74431851959156736,
                -249502587324203008,
                121954977894629376,
                -11479413568831488,
                -51580676029284352,
                163566888801009664,
                150352013165592576,
                256774843129659392,
                -75077222334988288
            ],
            [
                -231171632545136640,
                8324415418793984,
                8252673895694336,
                91121115618869248,
                23483128827871232,
                71120075691655168,
                188749879785291776,
                191215070754111488,
                156085141670723584,
                -230654655921651712
            ],
            [
                -8564515901800448,
                181554332095741952,
                -39105702999883776,
                169783080867856384,
                -84965791828541440,
                39632330414882816,
                213321559484399616,
                197576140657786880,
                162294942826233856,
                -232309953497399296
            ],
            [
                -142037566365892608,
                149757641231433728,
                17141056638287872,
                107871324864512000,
                26323961931366400,
                59849626240417792,
                261089739073912832,
                260433519610691584,
                17117760735674368,
                -86754001462231040
            ],
            [
                -23758966660005888,
                147992186334478336,
                -50549969777590272,
                165911906584887296,
                188097800670543872,
                82646689877327872,
                78550064171057152,
                209128417273053184,
                973579898322944,
                -52991048800010240
            ],
            [
                -40438847963660288,
                268851930388758528,
                75700559528591360,
                187842988850806784,
                188261868421251072,
                87255181196001280,
                61630182242385920,
                136403376727392256,
                84255146539745280,
                8136762392051712
            ],
            [
                -18620366855340032,
                167345875905937408,
                -81912679966441472,
                92028745287729152,
                171475297982480384,
                65531588800151552,
                112112665198854144,
                303978062721056768,
                97888515198550016,
                -155013255272595456
            ],
            [
                -245638594226552832,
                309158720992968704,
                -4188294803881984,
                418828546232811520,
                352545312386056192,
                317682959765209088,
                -587462809248333824,
                233519777065205760,
                98536428195020800,
                -16534367811665920
            ],
            [
                -149138049249312768,
                757965520476569600,
                11361138759434240,
                531889265332715520,
                507613663499124736,
                281623805917396992,
                -1000374917771821056,
                -144706862770552832,
                132562739661897728,
                -113441991936704512
            ],
            [
                -60861357326598144,
                767071263460950016,
                326767227913109504,
                532047629366853632,
                538241006567424000,
                31560048903716864,
                -391573783284023296,
                -249857935738404864,
                -285997680352559104,
                -274383745186791424
            ],
            [
                -61659697257644032,
                235276985624952832,
                298936286511628288,
                87652439901077504,
                162550613639430144,
                212336637584080896,
                271898264792465408,
                -451742289371332608,
                -48433770671374336,
                -275185821739384832
            ],
            [
                -326695622218350592,
                261486972009185280,
                -122088740356096000,
                -41070534573686784,
                303370376388280320,
                241441775523201024,
                206169133266501632,
                -7059100336652288,
                52219492285022208,
                -440885196162596864
            ],
            [
                285592544677462016,
                -141578013455155200,
                -201073755865219072,
                235904566246244352,
                147884829331947520,
                218371530491428864,
                186282799030861824,
                230446487446749184,
                170043304346386432,
                -126980321559183360
            ],
            [
                459920800456114176,
                -405671102900076544,
                -290327557142740992,
                173173923188310016,
                261324708144742400,
                99624163022471168,
                313254745403817984,
                263195578719010816,
                -30439317990014976,
                -250665784727044096
            ],
            [
                309133432225529856,
                -61583702106308608,
                26979601574002688,
                12150504356315136,
                11071510861053952,
                -7620273247354880,
                -78360149307162624,
                448277865671163904,
                52348989843963904,
                -118007293064249344
            ],
            [
                81955019754045440,
                -31613020882862080,
                -44245808190586880,
                -151955152658497536,
                51230292597276672,
                25510810805600256,
                467072883076628480,
                395341912711626752,
                35191308461015040,
                40144131602776064
            ],
            [
                235040693704196096,
                -201985869479936000,
                57095826354208768,
                -330759176676442112,
                113856774108348416,
                60373178458832896,
                460115791971352576,
                485603777173258240,
                69305640987656192,
                -145615042195226624
            ],
            [
                187147925703360512,
                42889826885697536,
                -51885352419328000,
                84798640291315712,
                57925068574949376,
                215662385380196352,
                428781084969271296,
                319526325368913920,
                89212818699583488,
                22266983068205056
            ],
            [
